solver_type L2R_L2LOSS_SVC
nr_class 2
label 1 -1
nr_feature 61
bias 0.000000000000000
w
0.1208015081475436 
0 
0.07664859604764675 
0.06830432372858397 
0.3485301027582397 
0.2133770009402209 
0.2992599012302096 
0.2899322645486552 
0.3853285646760844 
0.1688115025829546 
0.3057489272862912 
0.2914740805140391 
0.3301820769332232 
0.05265791882217677 
0.2290965352888511 
0.2105657101237124 
0.2656937524511553 
-0.03657505461699077 
0.1547022457771399 
0.1351012737029587 
0.1548780267449191 
-0.1582271449467328 
0.03808822832660198 
0.01869907178120883 
-0.07761105886104255 
0.2872973801079577 
-0.03546736541075593 
0.09643355909622300 
0.02578933883897884 
0.02824335139387608 
-0.03129928839513588 
0.01585551063788996 
-0.01082914559824093 
-0.009260121087984158 
-0.02324517990116125 
-0.03070091756759522 
-0.02633208447762834 
-0.02662167968089910 
0.08389447181595228 
0.04190309742969542 
0.06572949837358873 
0.06432594117590129 
0.04759495812376104 
0.01257182809236150 
0.03520985499808693 
0.03276837299354296 
0.1771810750052567 
0.1233707720088656 
0.1729101324348323 
0.1634793169763047 
0.06401314426782986 
-0.05420533163620760 
0.03156662125031532 
0.01956628623935087 
0.07305767385735483 
-0.07430872438145775 
0.03165246686686048 
0.01704224795084754 
0.05090315291221298 
-0.1234135917405848 
0.0005777613457577276 
-0.01612562237338320 
