solver_type L2R_L2LOSS_SVC
nr_class 2
label 1 -1
nr_feature 61
bias 0.000000000000000
w
0.1207029186673541 
0 
0.07659020386407647 
0.06825031790707961 
0.3484258627331827 
0.2133387893282175 
0.2991823474521667 
0.2898577354303143 
0.3852369483428886 
0.1687315452115127 
0.3056628649647395 
0.2913881072618154 
0.3301503574744036 
0.05261250293095750 
0.2290614948374033 
0.2105289381035509 
0.2657148930533360 
-0.03657240927345741 
0.1547184017788665 
0.1351153789644644 
0.1549184798077587 
-0.1582075060863814 
0.03812245235430459 
0.01873129098299300 
-0.07754240790967823 
0.2874174284147187 
-0.03550494694193318 
0.09647440759472431 
0.02578616579164252 
0.02824260425024078 
-0.03121520152579017 
0.01599758104146975 
-0.01072048326409088 
-0.009149262435131516 
-0.02328405932131416 
-0.03072298926132957 
-0.02636423245574645 
-0.02665299295267198 
0.08378862284497660 
0.04178459449837042 
0.06561766844821401 
0.06421393714786407 
0.04761078894314556 
0.01261056081299437 
0.03523438190307270 
0.03279426031763206 
0.1771826444963628 
0.1233977995382385 
0.1729213420255276 
0.1634923453454150 
0.06401983387883255 
-0.05419817120319800 
0.03157622738088348 
0.01957485071795965 
0.07306118897819606 
-0.07431529957007280 
0.03165500605367357 
0.01704308759634963 
0.05089740909596744 
-0.1234372729041373 
0.0005680576132536252 
-0.01613746355999592 
