solver_type L2R_L2LOSS_SVC
nr_class 2
label 1 -1
nr_feature 61
bias 0.000000000000000
w
0.1208826084699895 
0 
0.07669585904198471 
0.06834838744333255 
0.3486230388105172 
0.2134173645917041 
0.2993309245408971 
0.2900012364154327 
0.3854118846975825 
0.1688862981841327 
0.3058273873916920 
0.2915528880751412 
0.3302077354642704 
0.05269352144712215 
0.2291235332861832 
0.2105944958371477 
0.2656763812788590 
-0.03657749658124215 
0.1546880450159372 
0.1350891431146462 
0.1548477078830459 
-0.1582407528665633 
0.03806219585207042 
0.01867499335453296 
-0.07766692947800301 
0.2871836276233145 
-0.03543267889871976 
0.09638460566791318 
0.02578702556758812 
0.02823860601362820 
-0.03136447682126606 
0.01573025450151330 
-0.01091984197142099 
-0.009353068737467184 
-0.02320897609135819 
-0.03068462454393957 
-0.02630398278210444 
-0.02659450277374890 
0.08399772203199965 
0.04201875638457621 
0.06583863049035425 
0.06443523591318995 
0.04756975108613253 
0.01251053899989892 
0.03517017790869239 
0.03272692476324367 
0.1771916910292878 
0.1233410336662205 
0.1729048489491027 
0.1634715946172723 
0.06401029153292807 
-0.05421622511590454 
0.03155722133583689 
0.01955783829375362 
0.07305812974659426 
-0.07430807350859062 
0.03164930259197901 
0.01704059226821439 
0.05091782966649133 
-0.1233912872496890 
0.0005917027272769534 
-0.01610978968567096 
