solver_type L2R_L2LOSS_SVC
nr_class 2
label 1 -1
nr_feature 61
bias 0.000000000000000
w
0.1201862461240724 
0 
0.07628906615092709 
0.06796958227594196 
0.3478315123290344 
0.2130795034663904 
0.2987276128410672 
0.2894160992798386 
0.3847038695897337 
0.1682537818468607 
0.3051610965501724 
0.2908842030251144 
0.3299855107708329 
0.05238600325152359 
0.2288887188778790 
0.2103448936514863 
0.2658249440308422 
-0.03655544169676318 
0.1548089909287206 
0.1351929149135314 
0.1551120187263962 
-0.1581182202488458 
0.03828950447332180 
0.01888603255263593 
-0.07718649517831314 
0.2881395484786882 
-0.03572495160093749 
0.09678612117177471 
0.02580136349760563 
0.02827326990247947 
-0.03079887441928481 
0.01679625368251075 
-0.01014179534451299 
-0.008556243053456793 
-0.02351460745464115 
-0.03082669236624668 
-0.02654316951509075 
-0.02682603632634835 
0.08312934416139095 
0.04104640341844374 
0.06492097352874222 
0.06351621334325672 
0.04777146062469875 
0.01300140276517775 
0.03548734428683039 
0.03305852755195602 
0.1771138790874434 
0.1235864144076470 
0.1729538556604290 
0.1635404622331040 
0.06403775546580330 
-0.05412811981736203 
0.03163610374407001 
0.01962875603160601 
0.07305793681938531 
-0.07431868449831279 
0.03167512387201055 
0.01705370691529106 
0.05080372123123556 
-0.1235782511163663 
0.0004794251858503892 
-0.01623801727781254 
