solver_type L2R_L2LOSS_SVC
nr_class 2
label 1 -1
nr_feature 61
bias 0.000000000000000
w
0.1181581685519585 
0 
0.07510281087238505 
0.06686548468244234 
0.3454648902022396 
0.2120293378080425 
0.2969053553314668 
0.2876473662098645 
0.3826037220786177 
0.1663750575236735 
0.3031816372395286 
0.2888985039131458 
0.3293394888419340 
0.05150581849217031 
0.2282107241753965 
0.2096250060012929 
0.2662497412800127 
-0.03649212388322300 
0.1551550460442120 
0.1354898328977214 
0.1558714377389256 
-0.1577678287062891 
0.03894123638035563 
0.01949130330195273 
-0.07577965459032851 
0.2909674306491674 
-0.03658323932993843 
0.09802326338652106 
0.02586757990635395 
0.02840162337884070 
-0.02917464781938944 
0.01990544368878457 
-0.007889324220949193 
-0.006246956104125699 
-0.02437232923841788 
-0.03122155399199167 
-0.02721482268213384 
-0.02747505708115917 
0.08052688442521493 
0.03808326444172736 
0.06214830343624296 
0.06073844789977244 
0.04845063517476264 
0.01456683349489069 
0.03651845964993453 
0.03413484291484124 
0.1767908910335827 
0.1242644709130173 
0.1730167524809345 
0.1636678515079750 
0.06415938071573642 
-0.05381337879035605 
0.03191388653251095 
0.01988439905901859 
0.07309082214208137 
-0.07429127377332961 
0.03179344499530484 
0.01713653845825487 
0.05042302023199564 
-0.1241509299433394 
0.0001109043180598755 
-0.01665123087638189 
