solver_type L2R_L2LOSS_SVC
nr_class 2
label 1 -1
nr_feature 61
bias 0.000000000000000
w
0.1164945572772824 
0 
0.07450469558372876 
0.06613834178202790 
0.3384430882989996 
0.2030458939098366 
0.2894087343502244 
0.2798885214428158 
0.3755358128590668 
0.1526471040086908 
0.2938069136039972 
0.2790140947899751 
0.3304540162958342 
0.04449735232706562 
0.2265956015298012 
0.2073564969125090 
0.2731711748730351 
-0.03763361743321039 
0.1593783662819300 
0.1390655680736821 
0.1637887827517155 
-0.1575418264042507 
0.04422843768839460 
0.02418941720892601 
-0.07504667696988644 
0.3036752680940815 
-0.04238754630560580 
0.1004621224835935 
0.02384936947904826 
0.02655725020075142 
-0.02462615647760039 
0.03050219098066637 
-0.0007714050176269097 
0.001097767886171844 
-0.02775301806937320 
-0.03283958811435522 
-0.02988693860781077 
-0.03006034989689388 
0.07195278224604203 
0.02744447929656741 
0.05262056539452836 
0.05117137907591010 
0.05255380099833582 
0.02099246764236835 
0.04157312783401172 
0.03929566349036816 
0.1755185680686036 
0.1232259412065873 
0.1722353906484444 
0.1627734455096482 
0.06649571585737371 
-0.05343200938129313 
0.03405086793255555 
0.02168655665171192 
0.07529791463164706 
-0.07547958705693941 
0.03331665852586475 
0.01821476066110623 
0.05023660062949295 
-0.1291992266828115 
-0.001296663483904569 
-0.01859457122745696 
