solver_type L2R_L2LOSS_SVC
nr_class 2
label 1 -1
nr_feature 61
bias 0.000000000000000
w
0.3100562040492959 
0 
0.2231715481283539 
0.1917487324252611 
0.2620791187117979 
-0.003680735955361867 
0.1887815135359611 
0.1614079500026395 
0.2643486325077500 
0.1607528823640647 
0.2375981670523403 
0.2260983729708956 
0.2358061424170479 
0.2192555855343428 
0.2331488297398626 
0.2305102252747672 
0.1950037079068401 
0.1984372032676524 
0.1973349720834995 
0.1969990028723177 
0.1511639337687104 
0.1547996778907131 
0.1531281518415678 
0.1530299044662057 
-0.4033598433403839 
-0.2454402045077360 
0.1808302343284232 
0.1952133685243480 
0.1885563807875251 
0.1883237679149848 
0.03841640599380266 
0.04321586195073262 
0.04065001826383735 
0.04074094967339274 
-0.0001047495123813712 
-0.0002890129524189544 
-0.0001985900204977392 
-0.0001979727457685244 
-0.009604361152040606 
-0.01089627087287992 
-0.01017902027408908 
-0.01021426981340191 
0.03505883113728860 
0.03959300398664548 
0.03714778407193432 
0.03724498539975411 
0.05149742323599228 
0.06337426029442886 
0.05635570793252651 
0.05697161051760807 
0.03168104419182423 
0.03472761789925305 
0.03324966486976913 
0.03324105915324481 
0.03187493897489391 
0.03488478664714539 
0.03342475356183258 
0.03341858473352320 
0.03250060961375063 
0.03496780346130338 
0.03394219480445065 
0.03386144988011404 
