solver_type L2R_L2LOSS_SVC
nr_class 2
label 1 -1
nr_feature 61
bias 0.000000000000000
w
0.03461174904702368 
0 
0.02107164835158494 
0.01921795915325479 
0.05036600787164913 
0.02126046344929048 
0.03916753514694698 
0.03751820988492246 
0.07428760664695344 
0.05485535415542658 
0.06707021675856169 
0.06584353532653318 
0.08121747137294943 
0.06681693761021508 
0.07605456937166982 
0.07505650834525943 
0.08001447587562896 
0.06823986168053696 
0.07588594483976029 
0.07502604789436050 
0.07611957952151426 
0.06626758523140436 
0.07272197703880523 
0.07197515910362860 
-0.02417892313195628 
-0.009533122441721994 
0.05623048237519390 
0.05217263009275808 
0.05486753370380830 
0.05454050128234643 
0.03816409924188025 
0.03710539889738172 
0.03788574217225930 
0.03776232771333415 
0.02416284442807843 
0.02337476591393839 
0.02393787373596047 
0.02385499911218800 
0.01782963371910426 
0.01726611501661280 
0.01765296100436350 
0.01760126085457898 
0.03918694848426354 
0.03731944729842982 
0.03869650216491538 
0.03848088366118196 
0.04623002902036494 
0.04445216950068977 
0.04661175459532846 
0.04603673625972776 
0.03995115717633782 
0.03726587551034872 
0.03934558554399498 
0.03900107742270916 
0.04086585359017809 
0.03814862898236225 
0.04031193318712902 
0.03993713648659616 
0.04135176513939113 
0.03849819713923275 
0.04080775865311279 
0.04039803458747686 
