solver_type L2R_L2LOSS_SVC
nr_class 2
label 1 -1
nr_feature 61
bias 0.000000000000000
w
0.1453012787604123 
0 
0.08861262840679592 
0.08071032085363784 
0.1963900843116995 
0.06515868202839548 
0.1457506057170697 
0.1383432728191938 
0.2288091014521096 
0.1136062574211859 
0.1850358136947743 
0.1782195954599223 
0.2132309870368653 
0.1036528693342176 
0.1720805840081217 
0.1653847284409279 
0.1860579652408249 
0.08062119074995505 
0.1464673678251906 
0.1400450423822087 
0.1503807664898314 
0.04926482573995186 
0.1122103662117159 
0.1061570210731680 
-0.1000152811921732 
0.003628603438301872 
0.06807458263090639 
0.05380997585103303 
0.06354981067307003 
0.06228233096985503 
0.004609292880241330 
-0.01121946032441008 
-0.001774526363490596 
-0.002526741780956323 
0.003335563919629424 
-0.01198652490337620 
-0.002977353219855405 
-0.003639129150936202 
0.03380028335248807 
0.02031454216657496 
0.02814558652025983 
0.02760736375590271 
0.03410560722687306 
0.002957890345543543 
0.02232057366987459 
0.02047663314700889 
0.08696468673168692 
0.03996031610474091 
0.07509123044970270 
0.06980953322351235 
0.04512868658179872 
0.0004864451491409100 
0.03053557826072926 
0.02694907525040777 
0.05115885400335407 
0.001332583028179822 
0.03522813424695521 
0.03106090665878986 
0.05144138930242565 
-0.003651911910241825 
0.03401907034863563 
0.02932655167577753 
