solver_type L2R_L2LOSS_SVC
nr_class 2
label 1 -1
nr_feature 61
bias 0.000000000000000
w
0.05527134291482033 
0 
0.03367760686468053 
0.03070271714549091 
0.07489165718090011 
0.02762552345169336 
0.05668970233886340 
0.05401830452903073 
0.1039500809930073 
0.07055075535410409 
0.09143234219957165 
0.08937857615595178 
0.1097993796055367 
0.08352386992107698 
0.1001806743510888 
0.09845606090075792 
0.1053643030399703 
0.08284542017181176 
0.09721361903252732 
0.09569309023006838 
0.09745061402481249 
0.07773707031301792 
0.09035451853996604 
0.08900525827473309 
-0.03864791698754197 
-0.01375472562665361 
0.06497506025494816 
0.05673778028429645 
0.06200351072393149 
0.06143999011043605 
0.03570194020274585 
0.03164170324592268 
0.03419562007373038 
0.03393752383230207 
0.01988020968751344 
0.01685432760721565 
0.01873139946405117 
0.01855237963330973 
0.01579376321301187 
0.01370738306656529 
0.01498223145214096 
0.01486795770653045 
0.03936014859877666 
0.03336569498896651 
0.03729568584538000 
0.03684100293361330 
0.05211634491983646 
0.04400109101855662 
0.05075163769884922 
0.04951755675659654 
0.04129846065635345 
0.03366751234272797 
0.03898058414203172 
0.03827741368160003 
0.04296481940258712 
0.03496750637941266 
0.04063302965149545 
0.03985255162020444 
0.04383043319408447 
0.03531513055210569 
0.04141956505064802 
0.04055722304587391 
