solver_type L2R_L2LOSS_SVC
nr_class 2
label 1 -1
nr_feature 61
bias 0.000000000000000
w
0.1619724016280608 
0 
0.09899541300787390 
0.09004658017352782 
0.2381603337553356 
0.08904812355880809 
0.1808314747112679 
0.1722806611986014 
0.2694385802077737 
0.1269836120625810 
0.2154662034876730 
0.2069451308014525 
0.2425665500894104 
0.09844777783198774 
0.1886053849120577 
0.1797154149247093 
0.2053035765983376 
0.06226346071558463 
0.1516751517011012 
0.1429248010175831 
0.1557457290396881 
0.01566092735264671 
0.1028372851976213 
0.09446752831009116 
-0.1106248559819100 
0.03458458118882475 
0.05728512855688070 
0.05495066131576552 
0.05836431887652079 
0.05728932998178881 
-0.007739607166917970 
-0.02110495693260862 
-0.01304537986083508 
-0.01371831985910383 
-2.151882271508344e-05 
-0.01742041565132416 
-0.007204793949810893 
-0.007946747910675855 
0.04854439057482988 
0.03035614351281163 
0.04087207838875850 
0.04016851971656563 
0.03415120910092535 
-0.003551391187040309 
0.01991266403067591 
0.01767260995938554 
0.1040885697702191 
0.04731003474561366 
0.09042071888350084 
0.08381187867607445 
0.04845412735780519 
-0.01169367933381961 
0.02930387609844932 
0.02426914913799257 
0.05567886340312208 
-0.01295278843900529 
0.03419281738010807 
0.02827458499392108 
0.05377180847693094 
-0.02319894811409906 
0.02979421159576677 
0.02310406309203815 
