solver_type L2R_L2LOSS_SVC
nr_class 2
label 1 -1
nr_feature 61
bias 0.000000000000000
w
0.2807584518394617 
0 
0.2039579116857219 
0.1749399820067459 
0.2577845546671357 
0.02577829821428887 
0.1959776544102866 
0.1713585371261343 
0.2782027970811253 
0.2140440426831031 
0.2627808934373341 
0.2551683882521906 
0.2450450613456173 
0.2546760718151204 
0.2496917874219714 
0.2496894903423818 
0.1972886898990352 
0.2125151003329653 
0.2033585340558394 
0.2040443203590002 
0.1498472873018773 
0.1601268546539829 
0.1539293136201129 
0.1544034511899857 
-0.3897878420728714 
-0.2041216079367633 
0.1684114734449276 
0.1943567334732851 
0.1799674383167000 
0.1806734792423433 
0.02983304580723328 
0.03572199470148291 
0.03231305024941619 
0.03254674719535705 
-0.003764270852315179 
-0.003850250737047667 
-0.003851423706546191 
-0.003829998431056542 
-0.01170507697181339 
-0.01289801964852864 
-0.01225600824728388 
-0.01227856067451782 
0.02869632683699017 
0.03448606724302462 
0.03113754025177315 
0.03136687576570490 
0.04135962098593141 
0.05685406371170351 
0.04674207182899627 
0.04792881756761341 
0.02668675733407147 
0.03096308191078450 
0.02866054489203040 
0.02875399341089790 
0.02737932349172416 
0.03213466175079485 
0.02949448000815743 
0.02963593872814834 
0.02727611690152588 
0.03172169582105927 
0.02933308197619600 
0.02943152950318172 
