solver_type L2R_L2LOSS_SVC
nr_class 2
label 1 -1
nr_feature 61
bias 0.000000000000000
w
0.1205303232068851 
0 
0.07648961226975699 
0.06815653933220764 
0.3482276767155733 
0.2132525248989411 
0.2990308024839392 
0.2897105628491389 
0.3850592326997412 
0.1685721885888610 
0.3054955678428039 
0.2912200872184700 
0.3300954906586081 
0.05253682430358767 
0.2290039020085652 
0.2104675657366256 
0.2657517217262180 
-0.03656694103247897 
0.1547486321222106 
0.1351412313814147 
0.1549830452128773 
-0.1581780610588789 
0.03817805970643959 
0.01878276785328063 
-0.07742350999839023 
0.2876589909236303 
-0.03557857212254480 
0.09657854623042358 
0.02579117483688377 
0.02825278383961216 
-0.03107630850027078 
0.01626422601262611 
-0.01052734066473568 
-0.008951331509275646 
-0.02336106694288122 
-0.03075762720143661 
-0.02642399979820096 
-0.02671079200130831 
0.08356865415396361 
0.04153825380280919 
0.06538519687647398 
0.06398112105073983 
0.04766443577510374 
0.01274104715128291 
0.03531884092977277 
0.03288249240304821 
0.1771598359663273 
0.1234609288137264 
0.1729323669780088 
0.1635085736870116 
0.06402584950912570 
-0.05417486473955205 
0.03159622397344281 
0.01959284022451843 
0.07306014351906423 
-0.07431653830908586 
0.03166172551650547 
0.01704661925056432 
0.05086613619666706 
-0.1234845159829364 
0.0005384239685711431 
-0.01617109629629671 
