solver_type L2R_L2LOSS_SVC
nr_class 2
label 1 -1
nr_feature 61
bias 0.000000000000000
w
0.1195084245426184 
0 
0.07589362732850237 
0.06760108653166690 
0.3470444798495848 
0.2127316583438808 
0.2981232319072791 
0.2888290515670990 
0.3839940289635462 
0.1676164938274845 
0.3044920867269826 
0.2902125036713627 
0.3297627098762760 
0.05208289873973555 
0.2286556155972846 
0.2100970989054162 
0.2659678213878665 
-0.03653360602831435 
0.1549266737347015 
0.1352935722037839 
0.1553652873894216 
-0.1580003561744715 
0.03850847800165984 
0.01908897011493480 
-0.07671834922500326 
0.2890976063838552 
-0.03602472604212043 
0.09720334080966977 
0.02581929995556085 
0.02831178385969377 
-0.03025197642056743 
0.01786316155699564 
-0.009373375841337160 
-0.007768680444931172 
-0.02382475177979039 
-0.03096202356459562 
-0.02678175909649716 
-0.02705671615541333 
0.08223936367939572 
0.04005566483228186 
0.06398315201229501 
0.06257711068631537 
0.04798714087829747 
0.01353936306586595 
0.03583334253807022 
0.03341981450855197 
0.1769976031104633 
0.1238406571491748 
0.1729845860385170 
0.1635928220973022 
0.06405578953311142 
-0.05402148129366696 
0.03171859421117057 
0.01970377693881521 
0.07305061698158669 
-0.07430358617102560 
0.03170891644062989 
0.01707547956999493 
0.05066669687765272 
-0.1237529607874754 
0.0003601644953687873 
-0.01637237431976299 
