solver_type L2R_L2LOSS_SVC
nr_class 2
label 1 -1
nr_feature 61
bias 0.000000000000000
w
0.1208771992340342 
0 
0.07669270671854723 
0.06834544848972929 
0.3486168426097794 
0.2134146748192040 
0.2993261898926896 
0.2899966385728464 
0.3854063298843616 
0.1688813111169158 
0.3058221564463490 
0.2915476338904666 
0.3302060254644245 
0.05269114671143757 
0.2291217334172008 
0.2105925766262494 
0.2656775403532867 
-0.03657733507797950 
0.1546889919645874 
0.1350899518669317 
0.1548497294966928 
-0.1582398478592702 
0.03806393081712822 
0.01867659786414171 
-0.07766320298346463 
0.2871912170055234 
-0.03543499333028974 
0.09638787083542474 
0.02578717939216745 
0.02823892207883146 
-0.03136013012717009 
0.01573860779269014 
-0.01091379385985331 
-0.009346870464113942 
-0.02321139076389685 
-0.03068571122700822 
-0.02630585706267393 
-0.02659631537616831 
0.08399083725798856 
0.04201104389501067 
0.06583135337804615 
0.06442794794875717 
0.04757143216915565 
0.01251462634854924 
0.03517282399506935 
0.03272968895836223 
0.1771909840756594 
0.1233430179932852 
0.1729052024692769 
0.1634721107445477 
0.06401048200188637 
-0.05421549918960332 
0.03155784825519330 
0.01955840163328857 
0.07305809961910328 
-0.07430811766214000 
0.03164951363545838 
0.01704070258991377 
0.05091685091655089 
-0.1233927759392908 
0.0005907726857602401 
-0.01611084598857785 
