solver_type L2R_L2LOSS_SVC
nr_class 2
label 1 -1
nr_feature 61
bias 0.000000000000000
w
0.3309434222729480 
0 
0.2359821293327205 
0.2033958971469776 
0.2706056620288093 
-0.01538959683014900 
0.1894993121591132 
0.1609927815575024 
0.2590899525035790 
0.1386588984552238 
0.2261062615626099 
0.2135564766011535 
0.2298786947397583 
0.2012104527926537 
0.2227922670081868 
0.2193798917768327 
0.1917484485856587 
0.1873792517959669 
0.1911126934522208 
0.1903301148358966 
0.1509680554806145 
0.1496242534288524 
0.1509600761375899 
0.1506111252056412 
-0.4175238362910876 
-0.2537857674681414 
0.1796258243251270 
0.1913408946761704 
0.1865070920670547 
0.1860379962763132 
0.04428871166538106 
0.04965154205805217 
0.04682023937982424 
0.04690381527842295 
0.003221632324145166 
0.003518149202239747 
0.003354137151032803 
0.003361757079894577 
-0.007878328881014939 
-0.008849785057076058 
-0.008305993853877501 
-0.008334676349555559 
0.04004713680198443 
0.04502779586868003 
0.04240900994593560 
0.04248336971999275 
0.05285894664246283 
0.06485178890019383 
0.05802771256125787 
0.05853489870932075 
0.03698869055714771 
0.04077127699817718 
0.03892381595867413 
0.03891629170951141 
0.03658730423074560 
0.04017497042419664 
0.03845555779415280 
0.03843558206873592 
0.03701353240156842 
0.04011796850875635 
0.03878012285665589 
0.03869622173444251 
