solver_type L2R_L2LOSS_SVC
nr_class 2
label 1 -1
nr_feature 61
bias 0.000000000000000
w
0.1154928628343963 
0 
0.07354806084430503 
0.06541674935800404 
0.3423070681269745 
0.2106033624513131 
0.2944677277436648 
0.2852782726655774 
0.3797527862641181 
0.1638423747901610 
0.3005035305563660 
0.2862119764978739 
0.3284552891831198 
0.05036913312803117 
0.2273095513398888 
0.2086700696797614 
0.2668151119839852 
-0.03632848677957015 
0.1556492090827429 
0.1359215611499762 
0.1569097363945773 
-0.1571833864863134 
0.03987480533673750 
0.02036628011991715 
-0.07394586053750690 
0.2945852238226407 
-0.03762583697710496 
0.09965189273763267 
0.02600608276916015 
0.02861807698118654 
-0.02699580655331784 
0.02402501670255505 
-0.004886687051542080 
-0.003171419071123328 
-0.02556133784698225 
-0.03176653258323148 
-0.02814232687021533 
-0.02837237621090494 
0.07706686269787948 
0.03421780392197565 
0.05849575983041978 
0.05708075766789559 
0.04928177896264144 
0.01657787246156369 
0.03782178088406587 
0.03549654632025871 
0.1763739105100002 
0.1251503035022115 
0.1731083338541524 
0.1638401615128347 
0.06424840984669461 
-0.05343662663116884 
0.03222169246691461 
0.02016451468018786 
0.07307023139825569 
-0.07428536269496563 
0.03189856479941546 
0.01719641546321896 
0.04994783135344679 
-0.1248359142383159 
-0.0003306547935624724 
-0.01715003643324967 
