solver_type L2R_L2LOSS_SVC
nr_class 2
label 1 -1
nr_feature 61
bias 0.000000000000000
w
0.1208447514631427 
0 
0.07667379715020560 
0.06832781888675014 
0.3485796667966801 
0.2133985327699925 
0.2992977812850828 
0.2899690506708739 
0.3853730014405254 
0.1688513907957156 
0.3057907715895677 
0.2915161098245871 
0.3301957637596408 
0.05267690198190654 
0.2291109342122882 
0.2105810618524727 
0.2656844918125391 
-0.03657636217183502 
0.1546946729650298 
0.1350948042438556 
0.1548618581125113 
-0.1582344112486047 
0.03807434221057006 
0.01868622708184306 
-0.07764084937750639 
0.2872367356451404 
-0.03544887392352292 
0.09640745702553397 
0.02578810352318656 
0.02824081935347053 
-0.03133405235651459 
0.01578871889583111 
-0.01087751024772356 
-0.009309686111410476 
-0.02322587554071325 
-0.03069222987821508 
-0.02631710024074723 
-0.02660718856212222 
0.08394953289419152 
0.04196477463716786 
0.06578769561937783 
0.06438422510960881 
0.04758151682828834 
0.01253914621566000 
0.03518869767468288 
0.03274627119238175 
0.1771867400115216 
0.1233549186446408 
0.1729073197284263 
0.1634752035997217 
0.06401162395814360 
-0.05421114271135581 
0.03156160899885495 
0.01956178124382156 
0.07305791806115076 
-0.07430838029373737 
0.03165077962360309 
0.01704136469439212 
0.05091097931849525 
-0.1234017029021354 
0.0005851942880136483 
-0.01611718143161950 
