solver_type L2R_L2LOSS_SVC
nr_class 2
label 1 -1
nr_feature 61
bias 0.000000000000000
w
0.1493197436175644 
0 
0.09433672974096874 
0.08435229940384147 
0.3104894230918656 
0.1473712938594216 
0.2503316745803341 
0.2395258342365524 
0.3428678068430984 
0.1172462864641806 
0.2595380334885773 
0.2448962680576124 
0.3158289786324385 
0.04625946157713815 
0.2175164663715635 
0.1995883643618718 
0.2729777493217793 
-0.01170690201422606 
0.1685781002495174 
0.1500540719917552 
0.1819251841888464 
-0.1071588498596475 
0.07438243150329543 
0.05634348989127597 
-0.1003031037987675 
0.2334879685143219 
-0.02104334865592117 
0.08285977119043891 
0.02819664179752076 
0.02966147542390255 
-0.02150925210951752 
0.01746060537582080 
-0.004509945487146951 
-0.003250997686009043 
-0.02253040487575914 
-0.03048207863325218 
-0.02585259722492322 
-0.02615073741872210 
0.06080779370382793 
0.02077242733504259 
0.04343454143682547 
0.04212319879857630 
0.05417498367730991 
0.01936663933756769 
0.04176242421654587 
0.03938055647551408 
0.1516415392661574 
0.08842288521090512 
0.1428930044243174 
0.1332363294834590 
0.06804947628004339 
-0.04206943692003085 
0.03743286634740774 
0.02641351330672214 
0.07654984842404071 
-0.06031058613969664 
0.03772831577764552 
0.02430727274195862 
0.05407801727593410 
-0.1082439278306289 
0.006806658736938160 
-0.008584558584469604 
