solver_type L2R_L2LOSS_SVC
nr_class 2
label 1 -1
nr_feature 61
bias 0.000000000000000
w
0.1348584189285769 
0 
0.08684070088412785 
0.07689417748664701 
0.3363012536520161 
0.1757163272738118 
0.2782765969659300 
0.2669574596507789 
0.3703660113703213 
0.1158370446257712 
0.2770956220074919 
0.2601873765369549 
0.3430420066151383 
0.02503294563690871 
0.2278091795774331 
0.2062897555548410 
0.2978859964317522 
-0.04299427060023246 
0.1734950336720347 
0.1510211330413163 
0.1892465783211259 
-0.1598282187421599 
0.05980254205708302 
0.03782505668294665 
-0.08954307073283328 
0.3226173061861681 
-0.05604866198513375 
0.09622401362157630 
0.01499117925662924 
0.01767297818747318 
-0.02586214179099403 
0.03724364024370620 
0.001422679105297801 
0.003572509855476032 
-0.03166292938743647 
-0.03451358123998261 
-0.03287345451428613 
-0.03294711397613942 
0.06582241867236170 
0.01723306448943536 
0.04465016461822474 
0.04310119653119474 
0.06236876069156705 
0.03054469825928811 
0.05143229530864575 
0.04907697036286587 
0.1712890415949499 
0.1088505039227348 
0.1658087951083482 
0.1551343362992331 
0.07558120675400900 
-0.05416260565532401 
0.04074035705720790 
0.02725579117431662 
0.08450116794103295 
-0.07968094529460473 
0.03896589076073878 
0.02244655341286417 
0.05317040549399437 
-0.1436474911409826 
-0.003324719096192204 
-0.02230979408181992 
