solver_type L2R_L2LOSS_SVC
nr_class 2
label 1 -1
nr_feature 61
bias 0.000000000000000
w
0.08534940783677040 
0 
0.05198377389166206 
0.04739492334430315 
0.1112464213385215 
0.03675654411675789 
0.08248533642346200 
0.07830724889916944 
0.1438020876197148 
0.08702419282520199 
0.1223212008215330 
0.1189253940306454 
0.1452126650786713 
0.09718438080543194 
0.1273185206269742 
0.1243173450870870 
0.1348402910254952 
0.09158861832406960 
0.1187970847437345 
0.1160657417830017 
0.1199331070240785 
0.08042525586109255 
0.1052693131753169 
0.1027814540750452 
-0.05941157092939580 
-0.01586842349772499 
0.07132483271865768 
0.05769744040084626 
0.06630625007558809 
0.06542544003920495 
0.02758255793913114 
0.01835133373418139 
0.02391578645369857 
0.02344800822434940 
0.01327357241672503 
0.005895787285071547 
0.01028954723913219 
0.009942659508611400 
0.01714626553151982 
0.01173482976503230 
0.01491975429399666 
0.01468297348118221 
0.03725291663031129 
0.02343439116735078 
0.03213563994564818 
0.03126161430016605 
0.06185060145605258 
0.04189127982800178 
0.05707480730253488 
0.05468395899809801 
0.04191959313123223 
0.02444777228138891 
0.03616888408774491 
0.03476873205932297 
0.04518627940950726 
0.02649368436832043 
0.03922114213921992 
0.03763879112197323 
0.04664645912102839 
0.02653306561200006 
0.04036257520700477 
0.03860072179486505 
