solver_type L2R_L2LOSS_SVC
nr_class 2
label 1 -1
nr_feature 61
bias 0.000000000000000
w
0.1208663818545056 
0 
0.07668640269643454 
0.06833957117103570 
0.3486044504073413 
0.2134092947865489 
0.2993167204938578 
0.2899874427669572 
0.3853952203207989 
0.1688713372806339 
0.3058116946728211 
0.2915371256706818 
0.3302026052220158 
0.05268639776756870 
0.2291181336815374 
0.2105887382757041 
0.2656798580764953 
-0.03657701151488493 
0.1546908857643131 
0.1350915693531870 
0.1548537725729616 
-0.1582380369049730 
0.03806740097764574 
0.01867980719334715 
-0.07765575076046122 
0.2872063932475394 
-0.03543962133532544 
0.09639440048395628 
0.02578748721184080 
0.02823955433689303 
-0.03135143707937275 
0.01575531314179673 
-0.01090169835759796 
-0.009334474671173446 
-0.02321621964209316 
-0.03068788438491392 
-0.02630960526448585 
-0.02659994023263597 
0.08397706832247544 
0.04199561972839765 
0.06581679985668554 
0.06441337272776222 
0.04757479407397121 
0.01252280044393151 
0.03517811576385301 
0.03273521693062820 
0.1771895698350559 
0.1233469858901555 
0.1729059089592613 
0.1634731424421188 
0.06401086281873372 
-0.05421404720384378 
0.03155910198509346 
0.01955952825295421 
0.07305803925224091 
-0.07430820564047626 
0.03164993568496866 
0.01704092325972395 
0.05091489354687688 
-0.1233957525775431 
0.0005889128687400005 
-0.01611295825365836 
