solver_type L2R_L2LOSS_SVC
nr_class 2
label 1 -1
nr_feature 61
bias 0.000000000000000
w
0.1178753782117466 
0 
0.07180421942661055 
0.06545160123468234 
0.1524014788925288 
0.04780564147340961 
0.1119792543775005 
0.1061211435475260 
0.1856263782033727 
0.1005571368249036 
0.1533018539551953 
0.1482771137374573 
0.1798642631217382 
0.1037816679843191 
0.1513091833497165 
0.1466545352523024 
0.1619259698066558 
0.09112440417103243 
0.1354008146800116 
0.1310578071576760 
0.1380734525255808 
0.07177340091224126 
0.1131566886015007 
0.1091322147831682 
-0.08165781913227793 
-0.01289559407138974 
0.07289988544879158 
0.05538642507960324 
0.06655400543442402 
0.06537404209753711 
0.01681576880810515 
0.002759957015614972 
0.01114662375214100 
0.01047718643160330 
0.007815946594761071 
-0.003883912379733068 
0.003023412891750864 
0.002503344780520387 
0.02294719741298657 
0.01393068617346669 
0.01919809564701632 
0.01882280125427628 
0.03517735903317546 
0.01248622776578120 
0.02663153766728800 
0.02526683202447332 
0.07253227804422713 
0.03867893862330606 
0.06390502123402679 
0.06010259533389004 
0.04290100934919123 
0.01306055776817754 
0.03298913857641291 
0.03064893068153422 
0.04755700842348994 
0.01501210729239029 
0.03703045242626979 
0.03434960975371899 
0.04894619280920932 
0.01349517904297458 
0.03766778465105208 
0.03466467441658642 
