solver_type L2R_L2LOSS_SVC
nr_class 2
label 1 -1
nr_feature 61
bias 0.000000000000000
w
0.1529544428756382 
0 
0.09435602872345415 
0.08538794191985974 
0.2723431977726327 
0.1233023247510998 
0.2158340965136428 
0.2068192973241685 
0.3049581829519668 
0.1354269859829007 
0.2414370359674027 
0.2309110862184258 
0.2716851879596884 
0.08270330178624410 
0.2017787142635387 
0.1896953397997041 
0.2276424376517706 
0.03227505759186840 
0.1551167471562623 
0.1428226958103056 
0.1597968088754280 
-0.03642171092983594 
0.08615170783365543 
0.07421252631988964 
-0.1029416112363741 
0.1130343608876180 
0.02920997825656604 
0.06874184658332044 
0.04911525096084550 
0.04911354794258811 
-0.01261983696985064 
-0.006570689123375766 
-0.009656818071119310 
-0.009610534916005780 
-0.009154689111475838 
-0.02361966643711084 
-0.01515172390973545 
-0.01574863606263489 
0.05432865395623325 
0.02774095681587020 
0.04293638675496066 
0.04199440370857851 
0.03943124773928532 
0.002613012855029621 
0.02578715068450033 
0.02348866912991859 
0.1267081866639994 
0.06986074351101951 
0.1156747778775106 
0.1080990428784223 
0.05356298614721077 
-0.02526463716357552 
0.03009936748191261 
0.02284017917489296 
0.06133681230765700 
-0.03264797531471032 
0.03339941370950866 
0.02469888857222367 
0.05285860181938295 
-0.05550465168147058 
0.02034302136121489 
0.01044183628459422 
